svm_type c_svc
kernel_type rbf
gamma 0.5
nr_class 2
total_sv 17
rho -3.20071
label -1 1
nr_sv 8 9
SV
24.62525451500206 1:0.333333 2:-0.333333 
27.44433521864795 1:0.333333 2:-0.333333 
20.35308595757173 1:-0.333333 2:0.333333 
32 1:-0.333333 2:0.333333 
29.71754894613878 1:-0.111111 2:0.333333 
13.20631521145883 1:0.333333 2:-0.111111 
16.40908140581611 1:-0.111111 2:0.333333 
32 1:0.333333 2:-0.111111 
-32 1:0.111111 2:0.111111 
-4.044050333769522 1:0.111111 2:-0.111111 
-32 1:0.111111 2:0.111111 
-8.774086068075636 1:-0.111111 2:0.111111 
-12.47380023851933 1:0.111111 2:-1 
-30.07763211575117 1:-0.111111 2:0.111111 
-32 1:0.111111 2:-0.111111 
-32 1:0.111111 2:0.111111 
-12.3860524985198 1:-1 2:0.111111 
